68 64
11181 0.06590644 0.011420431 0.18099657 0.13124628 -0.26102924 -0.26780456 0.1036466 0.1874113 -0.11642055 0.115475975 0.22300489 -0.256858 -0.11139932 0.0064690458 0.09519874 0.016064843 0.06863198 -0.016609784 -0.17426535 0.069823354 0.027640276 0.27446342 0.23768589 0.17782396 0.013638553 0.15771453 -0.1583525 0.17247368 -0.028328585 -0.109986246 -0.07557765 0.06980468 -0.2859315 -0.40332255 -0.045599062 0.0003748393 0.10294261 0.16429998 0.372583 0.11641197 -0.09274941 0.0047462387 0.03116505 -0.20513406 -0.1331645 -0.04998724 -0.06504384 -0.07830164 0.010802746 0.38404623 -0.008935421 0.08484726 0.156673 0.24427901 0.22375862 0.2504718 0.10122431 -0.20695294 -0.12827536 0.31447953 0.18044178 -0.21124348 -0.019613244 0.029489521
10912 0.08352178 -0.003959245 0.22444342 0.12414622 -0.1639417 -0.24892908 0.09050893 0.22937983 -0.07245276 -0.013729149 0.22832517 -0.20645651 -0.032022092 0.014561318 0.0853653 -0.009705789 0.021211596 -0.050986227 -0.20299433 0.102970496 -0.015258182 0.241228 0.30628935 0.11474735 0.03916896 0.21053855 -0.10350982 0.048899468 -0.041419927 -0.13214578 -0.091838524 0.06048689 -0.31947955 -0.36950997 -0.050006285 0.061186332 0.059199784 0.19147679 0.40260532 0.093547285 -0.0643431 -0.02152679 0.10804571 -0.20555867 -0.13587046 -0.0072038453 -0.13279848 -0.086839825 0.019922702 0.3484796 -0.094691165 0.14328359 0.16111764 0.29541454 0.19518596 0.21821576 0.105289996 -0.19565122 -0.09210507 0.2272362 0.21780387 -0.18491529 -0.0979102 0.025423355
11122 0.0827024 0.02382468 0.22301589 0.14064154 -0.28237134 -0.30974007 0.11298091 0.23879772 -0.09718946 0.13360153 0.22100787 -0.21993333 -0.120254025 0.012061283 0.12099947 0.01586471 0.04121132 -0.015421431 -0.16491562 0.0702265 0.008447839 0.29264647 0.2994384 0.20936668 0.02868182 0.21647859 -0.152809 0.21817811 0.034036864 -0.13076039 -0.08827329 0.11877267 -0.3564373 -0.43970025 0.018057307 0.019181045 0.14008637 0.23839597 0.43751156 0.13506265 -0.08856461 0.0017618022 0.03423188 -0.2070106 -0.13197154 -0.045200363 -0.06313466 -0.10004452 -0.039177526 0.40804648 0.012825766 0.04086462 0.16450305 0.27515057 0.2801218 0.31868318 0.121874996 -0.2393589 -0.14335446 0.2609829 0.19497196 -0.22624357 0.017016733 0.06554235
10939 0.028209072 0.026486525 0.17856923 0.18407077 -0.31237012 -0.27055943 0.065476514 0.20855995 -0.11321556 0.14667605 0.22559005 -0.286428 -0.09824197 0.007543744 0.117363304 0.005452561 0.0020655426 0.01084077 -0.20311181 0.05996139 0.012239795 0.3015551 0.29051185 0.21001056 0.03279349 0.1745844 -0.17561874 0.21036078 -0.07015315 -0.12845698 -0.054255724 0.038961265 -0.3301503 -0.48536757 -0.005203705 0.0354223 0.09328293 0.2493194 0.4601316 0.11158199 -0.09361153 0.015594965 0.05294575 -0.24154507 -0.17534322 -0.032454055 -0.04437281 -0.09966868 -0.014917065 0.45384198 0.041060843 0.10756713 0.17615551 0.2702747 0.23338959 0.29191768 0.105371386 -0.25244078 -0.11886625 0.35333252 0.2019902 -0.2555734 -0.019950524 0.015494271
10863 0.0033960198 0.036089115 0.1621269 0.15648541 -0.28808373 -0.22994548 0.0737637 0.15732753 -0.10489122 0.13268898 0.27147973 -0.29145455 -0.08055845 -0.023784924 0.10042878 0.01051981 0.029874055 -0.004794448 -0.20814058 0.09058249 0.010278177 0.2843365 0.24839461 0.16548178 0.008452762 0.10949433 -0.17583026 0.16511266 -0.107439086 -0.10242321 -0.038495798 0.00075817056 -0.30969784 -0.44211766 -0.086525105 0.02628205 0.07423928 0.19594017 0.43978617 0.10021993 -0.042980663 0.028957747 0.10252844 -0.276068 -0.18925866 -0.012750572 -0.045108985 -0.108525455 0.030524246 0.40925723 0.04093996 0.14692222 0.16112262 0.23606184 0.19703723 0.23639841 0.11119438 -0.22170852 -0.0837114 0.37645432 0.22048892 -0.25111586 -0.05905804 0.005205776
10932 0.024788804 0.038972642 0.20627378 0.20043947 -0.31981224 -0.25376856 0.08337787 0.19962281 -0.089552015 0.12363122 0.24035893 -0.2889444 -0.099353716 -0.011730669 0.12722488 0.021852719 0.020965474 -0.017248709 -0.22606467 0.08828783 -0.0029247687 0.30887747 0.302832 0.19635262 0.034105 0.1625935 -0.15142623 0.19126159 -0.086791106 -0.12607038 -0.039979216 0.037420727 -0.36540017 -0.48518 -0.04456224 0.035378315 0.09316005 0.26062116 0.47614765 0.098120965 -0.075548396 0.03620642 0.097089946 -0.25452235 -0.17301138 -0.03431291 -0.058027875 -0.087291665 -0.0045343614 0.422431 0.03971798 0.10191268 0.16343889 0.2846768 0.21164723 0.27422705 0.106201276 -0.22658508 -0.12979794 0.3526204 0.19892229 -0.23549901 -0.015644738 0.016124686
11189 0.07032646 -0.0052222074 0.19980113 0.10948889 -0.21480696 -0.2669997 0.07271214 0.17175968 -0.10428735 0.08034273 0.23700441 -0.2484303 -0.07155376 -0.016150348 0.084435195 0.0053911135 0.05307571 -0.023443172 -0.17789689 0.084687546 0.0250408 0.26289812 0.23836164 0.15591279 -0.00080264546 0.18105222 -0.16930263 0.13269341 -0.05057739 -0.10115535 -0.083974026 0.062193662 -0.29407117 -0.3634325 -0.037442006 -0.0052332287 0.07876426 0.1457242 0.38226318 0.12390826 -0.08551926 -0.0028379217 0.056163773 -0.19547324 -0.14384273 -0.039344694 -0.05953096 -0.07994374 0.017518679 0.3419763 -0.017554015 0.08626243 0.15073937 0.25528762 0.19810867 0.247346 0.09491347 -0.19317299 -0.13659629 0.30589613 0.1973212 -0.21325389 -0.02949063 0.035411604
10913 0.04248429 0.023463624 0.19833227 0.18406872 -0.26907164 -0.26118886 0.0727849 0.18719794 -0.10447209 0.089698896 0.2281314 -0.27781653 -0.07847789 -0.013618543 0.12560791 0.009287414 0.0048300275 -0.020525599 -0.19222768 0.08867123 -0.014001005 0.3022268 0.28283215 0.19924244 0.027151523 0.16776241 -0.13723166 0.18703417 -0.07229865 -0.11203687 -0.042375058 0.025903668 -0.347947 -0.46387458 -0.028236853 0.033180002 0.08071187 0.223564 0.4620764 0.10800885 -0.09145048 0.013373183 0.09095809 -0.2494974 -0.16096431 -0.025745168 -0.058123503 -0.1038989 0.009877593 0.42995545 0.011753805 0.117017165 0.15004334 0.2698642 0.21621719 0.2559312 0.09712275 -0.2283793 -0.10722721 0.33356577 0.19371675 -0.24591182 -0.034666248 0.013344796
11000 0.030267885 0.010691075 0.1947407 0.1571073 -0.2975955 -0.27750573 0.08181536 0.20753828 -0.110433266 0.10912707 0.24540891 -0.24337864 -0.11052326 0.0019908901 0.121365786 -0.0072451145 0.016058406 -0.007716619 -0.19325101 0.057380445 -0.010222747 0.2764544 0.29407054 0.21419741 0.041550882 0.18827695 -0.13743019 0.17697613 -0.040066928 -0.14529695 -0.075739674 0.050197396 -0.3367854 -0.45780262 -0.022609105 0.04767149 0.10572043 0.2295349 0.4509347 0.10054225 -0.07475356 0.029216692 0.05623255 -0.2292305 -0.14772747 -0.036509637 -0.07556044 -0.10086316 0.010189767 0.4251533 0.018868234 0.08771315 0.17300937 0.27209446 0.23211467 0.2918451 0.10542466 -0.25113752 -0.11941165 0.33509403 0.2215501 -0.2239089 -0.027365146 0.043218058
10889 0.053934637 0.019195216 0.19523616 0.12253995 -0.23730262 -0.26819807 0.09954914 0.16429524 -0.103958875 0.097873054 0.22334917 -0.25119686 -0.099961326 0.0010731596 0.113161035 0.025069091 0.047347173 -0.028073546 -0.16476533 0.0961834 0.0133143915 0.25874907 0.24987653 0.15769275 0.015591353 0.1656815 -0.17111175 0.15774915 -0.032005835 -0.10244177 -0.05745779 0.07268539 -0.3215158 -0.41241682 -0.035582326 0.0022136527 0.08381657 0.19277216 0.3840341 0.11901816 -0.06291527 0.008800584 0.057070863 -0.2336422 -0.14383452 -0.05460888 -0.047716267 -0.098791756 0.011352459 0.3894302 -0.007744796 0.084443375 0.16362756 0.25182965 0.22577399 0.28235868 0.097163156 -0.19603172 -0.13285159 0.32100305 0.18167014 -0.23771179 -0.03793756 0.026295353
11302 0.0706733 0.01110463 0.24057993 0.15387128 -0.23536754 -0.250451 0.06308637 0.2122182 -0.08337268 0.042254243 0.23130532 -0.245349 -0.08147158 0.015938548 0.09283139 -0.014049533 -0.0051274905 -0.05130466 -0.23772216 0.06681799 -0.018523116 0.25669017 0.3446508 0.17856266 0.039473005 0.20648308 -0.13324168 0.11026034 -0.074293435 -0.1579252 -0.0909779 0.06357603 -0.3528835 -0.42708233 -0.006301164 0.046239544 0.10701854 0.24587122 0.45242932 0.11156019 -0.07402394 0.0008452282 0.09225907 -0.23291872 -0.16279806 -0.015350758 -0.08972223 -0.09039099 -0.005522984 0.39924732 -0.04838164 0.11692243 0.15505776 0.2855552 0.22378987 0.27221107 0.13197388 -0.23444702 -0.116540655 0.2978014 0.228247 -0.22680023 -0.042359684 0.03639108
10861 0.05016416 0.017820032 0.20477203 0.14098139 -0.26522386 -0.2697195 0.088216186 0.19556364 -0.089058094 0.086721234 0.22411679 -0.24321589 -0.084146805 0.0046576583 0.10042725 -0.0083609745 0.028984245 -0.018799363 -0.18383056 0.067794695 -0.015911097 0.28280985 0.26536864 0.1923864 0.0080506215 0.19670023 -0.15957752 0.1576003 -0.039563645 -0.1359889 -0.08373491 0.061933625 -0.33435816 -0.42739752 -0.028937716 0.030276446 0.10695722 0.20422083 0.41142592 0.11965985 -0.0669435 -0.0053431788 0.054876998 -0.22147432 -0.12977493 -0.028779097 -0.09135695 -0.089526415 0.015591426 0.3809051 -0.016867666 0.10993427 0.14890358 0.26559144 0.22121298 0.2844635 0.11977058 -0.2199235 -0.12420647 0.31323645 0.199909 -0.20996891 -0.039711326 0.052725498
10881 0.06308144 0.009167788 0.20689972 0.15708284 -0.26911464 -0.28242838 0.08890359 0.22740184 -0.0852734 0.104176156 0.2145865 -0.25142115 -0.12251239 0.017695703 0.115567766 0.014169413 0.034653954 -0.026406445 -0.17594337 0.086133435 0.016329348 0.28073448 0.29450306 0.20369107 0.020350918 0.20625953 -0.14646158 0.18708932 -0.013162335 -0.14842835 -0.06724525 0.077089645 -0.3520591 -0.42736936 0.012734262 0.053490493 0.13201554 0.2428221 0.44261336 0.120369345 -0.09865768 0.0090262005 0.059177022 -0.21551856 -0.13233922 -0.04730581 -0.051470984 -0.08854125 -0.030049395 0.40438646 -0.010176081 0.065181844 0.17450084 0.2859818 0.26746073 0.29698572 0.11857048 -0.22678849 -0.13757694 0.26834628 0.1989177 -0.2308175 0.008723834 0.041119248
10982 0.062384088 0.03857338 0.18732975 0.15415756 -0.2769365 -0.24733093 0.09116962 0.16684319 -0.10323148 0.12258626 0.22631654 -0.26861966 -0.101866975 -0.008621956 0.110646285 0.018881438 0.037791055 -0.024925224 -0.17983267 0.08475108 0.008242855 0.27241042 0.26706913 0.18437916 0.012806556 0.16872793 -0.15048717 0.16916461 -0.04999777 -0.12163336 -0.04261931 0.057423774 -0.33662197 -0.43213862 -0.041543826 0.022342125 0.078562625 0.20661195 0.39656365 0.12435747 -0.06502863 0.01990689 0.046632256 -0.23413561 -0.15897611 -0.05646523 -0.06551258 -0.10148729 -0.00014274473 0.39051333 0.026046377 0.09416844 0.17419717 0.25565362 0.21887532 0.26417166 0.10062146 -0.2049121 -0.12569211 0.32457787 0.1963307 -0.23081532 0.0016003305 0.047941778
11009 0.030997707 0.044135876 0.20887072 0.1661557 -0.29192737 -0.2676485 0.056917157 0.21087195 -0.09464667 0.08481465 0.24052684 -0.2618108 -0.08017187 -0.017345343 0.11179536 -0.0030246144 0.007968098 -0.011822951 -0.21960941 0.09108104 0.002340607 0.27143532 0.30823007 0.17456192 0.029442597 0.1684609 -0.15667105 0.15939449 -0.07438005 -0.13207273 -0.06515338 0.048224915 -0.34121662 -0.4637031 -0.028605958 0.04486681 0.094285466 0.24759248 0.44808766 0.106297545 -0.0717225 0.030578626 0.096466504 -0.24293461 -0.16398226 -0.007566254 -0.072072074 -0.10230423 0.009588943 0.42932254 0.000969409 0.13749115 0.17423189 0.28412625 0.2154416 0.28397757 0.11203422 -0.21451809 -0.10309761 0.3281247 0.20899391 -0.23960547 -0.035836615 0.01057859
10933 0.05642022 0.029994633 0.2212253 0.14164199 -0.23992251 -0.26232374 0.07403219 0.18548258 -0.08185748 0.0553969 0.23815729 -0.23981836 -0.07241323 -0.01411284 0.10744726 -0.003275052 0.0274764 -0.043984212 -0.19041988 0.08816172 -0.0031941847 0.26396418 0.28345057 0.17540543 0.028391803 0.1745585 -0.14955097 0.121640325 -0.047398407 -0.11581924 -0.09051497 0.06368852 -0.32094574 -0.3998234 -0.027740395 0.030103873 0.065750636 0.21506616 0.43329355 0.10573787 -0.06288251 0.0027024075 0.1028826 -0.24589431 -0.16347511 -0.032304697 -0.100263335 -0.078109294 0.007063586 0.36987004 -0.01567211 0.11164368 0.1700261 0.26390985 0.21490888 0.25847262 0.112109445 -0.214495 -0.10867916 0.28346407 0.1987389 -0.21545751 -0.04168881 0.016116925
11309 0.06569571 0.019611852 0.21156804 0.124121636 -0.21122162 -0.25847143 0.08087518 0.19882111 -0.07472553 0.08320423 0.22760981 -0.2291834 -0.07677862 0.00086483906 0.090304986 0.0079841195 0.035378408 -0.037040148 -0.19492756 0.09924202 -0.005755639 0.252878 0.2708973 0.16395012 0.0077449284 0.19237535 -0.14848278 0.1313791 -0.042257648 -0.1210225 -0.07688882 0.06782131 -0.32675472 -0.3992263 -0.016096141 0.02914892 0.073106416 0.18895072 0.40661353 0.11561719 -0.09801198 0.0036371525 0.05669006 -0.22462226 -0.13173698 -0.037042137 -0.07924006 -0.07196817 -0.0043679015 0.39328015 -0.03257948 0.11761321 0.1699143 0.24714825 0.21179499 0.27332363 0.11416355 -0.19044232 -0.106286556 0.29032445 0.18232004 -0.20598173 -0.044226352 0.040789492
11319 0.05255064 0.039303426 0.19807678 0.15865918 -0.29481924 -0.25356933 0.07795727 0.19023123 -0.08367108 0.11901637 0.23072116 -0.27886647 -0.08654621 0.011691062 0.12105447 0.022130622 0.033727966 -0.02197681 -0.1868399 0.086338975 -0.010151184 0.28521773 0.27160656 0.19831976 0.0130861495 0.1618776 -0.15199761 0.183112 -0.050307564 -0.12472879 -0.060993373 0.041417886 -0.34218928 -0.45953375 -0.022486849 0.010016518 0.082137205 0.20546274 0.41812384 0.13038526 -0.074288964 0.010473507 0.06111628 -0.2412177 -0.15838969 -0.0390929 -0.055792153 -0.09845581 -0.0045485804 0.4175116 0.013020298 0.07854671 0.1484335 0.25208896 0.23055604 0.29539052 0.10364975 -0.23079285 -0.108861156 0.32715666 0.18683527 -0.22181268 -0.0128394505 0.01942936
11201 0.044460054 0.04369523 0.17850463 0.16184843 -0.28342798 -0.24435262 0.07082867 0.1797694 -0.09471423 0.10801717 0.23808919 -0.28708124 -0.09196916 0.002577028 0.117111586 0.02165798 0.004930978 -0.009922161 -0.20870902 0.09848679 0.004779974 0.2871531 0.28060433 0.19387366 0.005243678 0.16946267 -0.16315526 0.1550318 -0.083745964 -0.100041665 -0.06310204 0.035380617 -0.3212648 -0.44347447 -0.05396135 0.014479548 0.098128915 0.22854649 0.43805307 0.10149258 -0.08857847 0.026809236 0.09313399 -0.25148946 -0.18054394 -0.030380554 -0.0724962 -0.09824181 0.0091468 0.41069233 0.02527601 0.10298273 0.16601439 0.2693341 0.20299578 0.283045 0.12432811 -0.23014325 -0.121644646 0.33303344 0.19240004 -0.24024495 -0.043269012 0.0013142311
11300 0.038232815 0.038219087 0.18733712 0.13500074 -0.29900312 -0.2503371 0.08000466 0.17466135 -0.10819701 0.15044829 0.23046868 -0.27809694 -0.1040308 -0.0068243784 0.08959174 0.009869616 0.050491106 -0.008433059 -0.18905857 0.0671557 -0.0003861902 0.27045143 0.23781751 0.18512376 -0.010078416 0.15730976 -0.19030885 0.19066031 -0.07259036 -0.10973383 -0.0322392 0.04748196 -0.33232307 -0.42844623 -0.03902299 -0.015449617 0.085317865 0.18032314 0.4158363 0.11330604 -0.07773568 0.017664872 0.07348275 -0.22789107 -0.17746805 -0.057408724 -0.026714282 -0.100032136 0.002560579 0.41172794 0.04852637 0.095966324 0.14550991 0.2477286 0.21624666 0.2797177 0.10654269 -0.22314642 -0.11921168 0.36038768 0.20273699 -0.25315592 -0.032413457 0.03052094
11180 -0.0016555637 0.055007275 0.19275954 0.20226541 -0.30868095 -0.24807294 0.07197006 0.19090241 -0.09226893 0.1078074 0.2408775 -0.27594736 -0.066627555 -0.023835912 0.11774554 -0.0015190506 0.0074137948 0.0024553025 -0.20844199 0.08173018 -0.03208451 0.29827967 0.29143524 0.18826786 0.02511294 0.1441672 -0.15915397 0.16315335 -0.10461642 -0.1279145 -0.05148759 0.03582604 -0.36042476 -0.47038007 -0.01931979 0.057274174 0.09845075 0.2549364 0.46659687 0.09059508 -0.061166085 0.03677787 0.11073976 -0.2473333 -0.16947106 0.001990771 -0.075458854 -0.10373578 0.00087452546 0.44111344 0.033227127 0.13386674 0.16886744 0.25647393 0.21738097 0.26337832 0.10116237 -0.22022662 -0.10261073 0.34097645 0.20642222 -0.2462822 -0.0272427 0.0112098595
11121 0.027112992 0.023142647 0.1935726 0.17213914 -0.28325155 -0.260048 0.07149803 0.19661981 -0.10016703 0.1091966 0.23803997 -0.26274794 -0.07431418 -0.007633392 0.10449186 0.017316269 0.012072906 -0.004122179 -0.20678157 0.08700383 0.009394699 0.28380218 0.3132489 0.19905232 0.037523177 0.162435 -0.1483124 0.16392204 -0.09535105 -0.12338246 -0.038404968 0.050126262 -0.33813205 -0.4441642 -0.033498727 0.033823043 0.10010524 0.22717246 0.4681988 0.109942794 -0.070871145 0.03129178 0.096925244 -0.23626457 -0.17406644 -0.031473774 -0.049934767 -0.084075704 0.007468407 0.4256766 0.00079412834 0.11255592 0.17569228 0.25966355 0.2010578 0.29481125 0.12765135 -0.21805336 -0.11225763 0.32662344 0.22361825 -0.23920262 -0.026736846 0.025204185
11179 0.051046584 0.018135095 0.19972062 0.14855403 -0.3152528 -0.27656606 0.07037166 0.20429689 -0.08307553 0.12664443 0.23710567 -0.27351192 -0.09124282 0.008491744 0.11661535 0.0036267184 0.015170479 -0.0033407276 -0.18807127 0.067776576 0.010183639 0.28264797 0.25939423 0.19759125 0.02145196 0.15629482 -0.16702326 0.1834577 -0.03563215 -0.10901081 -0.054128725 0.06707299 -0.3211188 -0.45039085 -0.010209051 0.031771556 0.10940844 0.23815396 0.4265409 0.11430237 -0.0764628 0.019612622 0.06845015 -0.22139303 -0.15450403 -0.051849302 -0.05578151 -0.10651714 0.0101611735 0.4301979 0.028297098 0.096366405 0.148296 0.2503266 0.23134762 0.29566866 0.111866735 -0.21918187 -0.12457274 0.3279607 0.19730896 -0.23731141 -0.017012492 0.017443273
10931 0.080085516 0.001637464 0.21855985 0.12255564 -0.17155185 -0.24858983 0.07835116 0.21581618 -0.0839104 0.02698663 0.23401931 -0.23831302 -0.03611823 0.006111705 0.104622096 0.010712659 0.012901025 -0.057789095 -0.2010104 0.095963225 -0.0010222051 0.26066267 0.3096968 0.12727076 0.042706195 0.2046595 -0.12498095 0.08722325 -0.07383164 -0.12855081 -0.085092045 0.060211882 -0.32947937 -0.38741875 -0.05652314 0.05850109 0.06583416 0.21233684 0.40914336 0.07129215 -0.07538238 0.010247585 0.09418676 -0.23782165 -0.15238991 0.007494345 -0.11071245 -0.07009383 0.015144764 0.36985165 -0.085845165 0.13006103 0.14268263 0.28060368 0.1961657 0.24066997 0.10441618 -0.20940901 -0.11206596 0.25375456 0.21431752 -0.18675034 -0.08031785 0.032239724
11003 0.028672665 0.032748725 0.14580104 0.17740005 -0.29445767 -0.23966737 0.059526924 0.15720439 -0.104075655 0.17041688 0.23223469 -0.3283926 -0.092596754 -0.050547678 0.09840952 0.005008001 0.05641766 0.014543687 -0.18804301 0.08634944 0.019963581 0.29201 0.24982677 0.19552554 -0.003458635 0.11314967 -0.18870476 0.20390864 -0.07387309 -0.09746621 -0.029001174 0.04524436 -0.31560695 -0.44335136 -0.08113549 -0.0053031314 0.081178084 0.19203134 0.43318045 0.12832998 -0.058733374 0.02167056 0.06265071 -0.26488078 -0.19006708 -0.04514859 -0.026454886 -0.10470275 -0.0028841968 0.4346497 0.05228177 0.098824136 0.17384595 0.25067607 0.18503107 0.25701126 0.09533702 -0.22716875 -0.12195442 0.3971502 0.2047305 -0.23706757 7.620458e-05 0.021743499
10909 0.037925705 0.01801062 0.20129102 0.16898781 -0.28086305 -0.2635022 0.078147255 0.21384661 -0.09147377 0.11228659 0.22456594 -0.27009767 -0.10575642 0.008982708 0.10912304 0.022697639 0.003525102 -0.015630752 -0.19922698 0.059764232 0.0038107557 0.30196097 0.29663885 0.20594561 0.030558884 0.18226609 -0.13710333 0.17320918 -0.06142717 -0.1268105 -0.05100978 0.045568675 -0.341394 -0.46790332 -0.019384721 0.046651978 0.10338479 0.23165965 0.43959227 0.10226796 -0.08243304 0.004755049 0.06816509 -0.23030077 -0.15481368 -0.022332788 -0.07096851 -0.1049197 0.006502914 0.4307373 0.006190805 0.087740324 0.17030554 0.27228832 0.23015717 0.29177538 0.10480888 -0.24576114 -0.13032795 0.32545352 0.20872359 -0.22534616 -0.018257543 0.033049095
10914 0.02918946 0.038972028 0.16654891 0.16014056 -0.26527175 -0.23462382 0.082552046 0.18475506 -0.0933027 0.105979785 0.25200328 -0.29834813 -0.06481714 -0.032607254 0.114112996 0.004227236 0.030154424 -0.03432564 -0.21003005 0.074521795 -0.012557588 0.27899617 0.24608302 0.1620899 -0.0010385202 0.1423452 -0.14922248 0.16939609 -0.06871953 -0.08726411 -0.059202515 0.041537672 -0.33915523 -0.4372424 -0.071497254 0.02918941 0.075565115 0.21487458 0.42978886 0.08763346 -0.05225859 0.0074309027 0.098262586 -0.241842 -0.16799916 -0.037690043 -0.05997582 -0.11198583 0.030220719 0.4044901 0.028121984 0.10473303 0.16297688 0.25248924 0.21375255 0.23069625 0.12034966 -0.21940176 -0.11566398 0.33592945 0.19297025 -0.24062444 -0.046758875 -0.0065672463
11169 0.029913802 0.026494393 0.19306163 0.15774211 -0.25024155 -0.23480035 0.07631712 0.18820116 -0.10104306 0.07325603 0.26164702 -0.2773451 -0.03210903 -0.040672988 0.099124745 0.011281008 0.017542832 -0.036804363 -0.2243157 0.08554901 -0.004957964 0.2676813 0.2913487 0.15884958 0.03229731 0.14585747 -0.12805302 0.10995501 -0.10339209 -0.1076261 -0.061169907 0.021494217 -0.33172923 -0.42506588 -0.09269422 0.03528653 0.06913638 0.20044999 0.42888168 0.087120354 -0.042019334 0.0071873707 0.109800056 -0.27043176 -0.15688531 0.017189775 -0.06870705 -0.07805026 0.04201975 0.3933029 -0.012233504 0.16717109 0.1442003 0.28120962 0.18738016 0.21369138 0.12224725 -0.1935967 -0.08186771 0.338035 0.22966231 -0.2219753 -0.0584376 0.008049282
10929 0.01261535 0.045819987 0.16953826 0.18164226 -0.3191162 -0.23338763 0.06501741 0.13322149 -0.08501899 0.13845469 0.25858632 -0.3243382 -0.069430344 -0.056561295 0.10567772 0.026105434 0.014091279 -0.0102203945 -0.20753665 0.0789053 0.0071232207 0.31312403 0.25918865 0.180726 -0.003690523 0.12726931 -0.1669665 0.21363764 -0.107224666 -0.09370624 -0.0219844 -2.3740598e-05 -0.3195257 -0.47015062 -0.10337919 0.015616328 0.07614305 0.20654477 0.45984864 0.09815035 -0.06352752 0.03665092 0.08014169 -0.28970984 -0.179533 -0.024135897 -0.007382223 -0.13005358 0.016382683 0.43827006 0.06948045 0.14510304 0.15698606 0.25041363 0.1750825 0.2510789 0.1273521 -0.22501561 -0.112094425 0.40004116 0.19778907 -0.26140264 -0.027750436 0.011727456
11299 0.035715222 0.021316897 0.18807513 0.13519648 -0.26176235 -0.2325554 0.09709067 0.1763911 -0.11851647 0.14258912 0.2492003 -0.27047426 -0.09132479 -0.017367337 0.10847267 0.0036599499 0.0695469 -0.005793501 -0.16190186 0.082187824 0.012622366 0.28987807 0.2184044 0.1510548 -0.011846281 0.14336014 -0.17697074 0.18058139 -0.04481421 -0.096205994 -0.049098726 0.054599304 -0.31365055 -0.42735255 -0.05456289 -0.003204346 0.07975142 0.19463582 0.40266004 0.11844451 -0.056496214 0.004613554 0.06505586 -0.2333111 -0.14206578 -0.03236876 -0.043190368 -0.09015599 0.00067313167 0.40739545 0.029542297 0.10334081 0.1680655 0.23870556 0.1988906 0.25019282 0.11368026 -0.19665985 -0.115217924 0.34862852 0.2119875 -0.23923147 -0.035289917 0.01923187
11079 -0.039047364 0.07443529 0.09950118 0.11670784 -0.34726408 -0.17617634 0.047939043 0.036464773 -0.122342825 0.22877774 0.30098033 -0.41230914 -0.07259028 -0.10176725 0.046109468 0.026600534 0.07206997 0.022864938 -0.17154564 0.09230306 0.036934204 0.30936095 0.14413846 0.15217623 -0.07927144 0.039805498 -0.257188 0.205486 -0.15575117 -0.0024496359 0.015651403 -0.017476656 -0.31032145 -0.46002638 -0.15666288 -0.056822825 0.01515267 0.13807632 0.39145583 0.09593129 -0.025390929 0.027794965 0.05930013 -0.30584708 -0.191368 -0.053781215 0.026325015 -0.15065838 0.041222904 0.42922363 0.11800049 0.15948537 0.16003945 0.19194083 0.118105106 0.20205705 0.09946408 -0.16893497 -0.09633491 0.49442798 0.18404424 -0.27949026 -0.03229305 -0.026405916
11203 0.07115141 0.0061212457 0.19815785 0.12433156 -0.22865453 -0.26283175 0.07873523 0.19334716 -0.099201225 0.09086978 0.20911095 -0.2618532 -0.08054704 0.010532845 0.108837046 0.023379415 0.038792882 -0.02603924 -0.19333878 0.10207593 0.0092151305 0.27106273 0.2694124 0.15650448 0.036319785 0.17345528 -0.13595891 0.12526283 -0.040958952 -0.11101543 -0.06557984 0.047680747 -0.32023826 -0.3854613 -0.054634653 0.029058916 0.07511375 0.19916995 0.3873682 0.11458961 -0.073155545 -0.0032574076 0.08403261 -0.22678867 -0.15840773 -0.030721217 -0.08172134 -0.09926641 0.010041295 0.3782353 -0.034327805 0.113487676 0.1555969 0.27923307 0.20240329 0.24934328 0.10085656 -0.20558912 -0.12756453 0.30412892 0.19573735 -0.22438501 -0.051815227 0.019802745
10124 0.07394039 0.016959166 0.14776182 0.03217238 -0.21664774 -0.22689916 0.07848256 0.09765659 -0.12343442 0.1509558 0.22873397 -0.32158688 -0.09855945 -0.03318421 0.07682752 0.020026824 0.12073724 0.008038789 -0.12010261 0.10992449 0.07156816 0.24751456 0.12594043 0.11914362 -0.07619308 0.113012575 -0.21118192 0.1748099 -0.032535374 -0.018531105 -0.036718428 0.06348008 -0.2624403 -0.34518513 -0.111236654 -0.07789679 0.021305647 0.09920751 0.29354367 0.115797445 -0.06532793 0.004594359 0.006506077 -0.20223202 -0.11539138 -0.07704303 0.007390403 -0.12168043 0.039398897 0.33673206 0.019693483 0.08332157 0.15839282 0.21601017 0.17657669 0.22413409 0.060422424 -0.12638824 -0.12728858 0.3435954 0.15679161 -0.20682916 -0.012132593 0.02579629
11001 0.08059813 0.015647663 0.2109866 0.14392482 -0.23669925 -0.2800502 0.08177464 0.23021969 -0.087105684 0.06021941 0.21589854 -0.22555442 -0.076188855 0.022955555 0.1053232 0.008707359 0.02903979 -0.032897446 -0.20078966 0.06886533 0.001233296 0.25922978 0.31421077 0.16700755 0.03561217 0.18171261 -0.13145353 0.12791404 -0.04151138 -0.14653423 -0.07957462 0.062981166 -0.35146153 -0.43324226 -0.012120896 0.04446929 0.0914527 0.22319216 0.44986302 0.11923734 -0.09711428 0.008309481 0.07488039 -0.23464122 -0.15036024 -0.018222423 -0.103737004 -0.09273218 -0.0061081364 0.40309796 -0.04717885 0.113774106 0.16332933 0.2755405 0.24519107 0.2875393 0.11004195 -0.21668756 -0.114896104 0.28803998 0.2089967 -0.22359227 -0.038665153 0.029590013
11002 -0.011536056 0.06475703 0.16014948 0.18137725 -0.3186639 -0.22389302 0.06644952 0.13601743 -0.1116834 0.14505014 0.26881877 -0.32506806 -0.07699972 -0.0397017 0.10162564 -0.010939761 0.019831829 0.0021966258 -0.2110908 0.07657717 -0.005587435 0.29451168 0.22305268 0.17249192 -0.013321107 0.107651204 -0.17912482 0.20303793 -0.12683551 -0.0852464 -0.018356701 0.01060273 -0.32245806 -0.46381778 -0.097684994 -0.00870891 0.06346822 0.20474264 0.44375148 0.101886116 -0.058146197 0.04362083 0.09528779 -0.2679126 -0.17905024 -0.015387588 -0.039936043 -0.09175801 0.038046844 0.4401498 0.044984493 0.15440851 0.16563532 0.2305878 0.15820159 0.23795496 0.092654705 -0.2192058 -0.08791048 0.4190137 0.21903811 -0.2625517 -0.0528012 0.0051863613
10779 0.11802415 -0.002349894 0.0735756 -0.03501183 -0.28060484 -0.26394376 0.13332765 0.048351903 -0.19184126 0.2761414 0.22633903 -0.34925437 -0.21018445 -0.030289698 0.078701295 0.075979784 0.2330678 0.018969333 -0.009817375 0.11558026 0.09757987 0.26556122 -0.007745649 0.17996436 -0.124969035 0.11027472 -0.31049457 0.27879134 0.08839046 0.036529798 -0.029507753 0.1556421 -0.2349117 -0.3549662 -0.078079686 -0.15801795 0.048203222 0.013359935 0.1962417 0.20817079 -0.092451915 -0.031267956 -0.08067959 -0.1466564 -0.08124593 -0.18282545 0.08459038 -0.14747792 0.015702156 0.328361 0.13666576 -0.031986315 0.15700378 0.16435646 0.21643387 0.26160708 0.054245897 -0.1261325 -0.1578171 0.3641835 0.099017784 -0.23005421 0.09568303 0.07163839
11119 0.039650213 0.014406586 0.17811438 0.1410351 -0.2569227 -0.25735638 0.07360432 0.17556557 -0.10552954 0.11934496 0.24362257 -0.26693425 -0.08082553 -0.025598073 0.12102604 0.008763959 0.061340574 -0.013205517 -0.17483422 0.07394096 0.0004591675 0.2981162 0.25513807 0.17891902 0.020945584 0.16200891 -0.14761949 0.1699148 -0.06651679 -0.118970245 -0.055703796 0.043179903 -0.30974308 -0.41847444 -0.05881493 0.021879861 0.0958681 0.20928073 0.4203243 0.10112201 -0.072800234 -0.0041634925 0.056621388 -0.23104899 -0.15392023 -0.040152203 -0.04377782 -0.09620684 0.010887243 0.41542622 -0.0020202298 0.112519294 0.17744218 0.27209517 0.2164285 0.26046956 0.09740792 -0.20709842 -0.1260752 0.34517953 0.19919871 -0.2231744 -0.015583615 0.01405871
10910 0.05829719 0.037006028 0.19308916 0.1515726 -0.2662684 -0.26250997 0.08803409 0.18640937 -0.07862538 0.08882732 0.23322748 -0.2546171 -0.08389546 -0.00447994 0.10262342 0.012195228 0.026248736 -0.022339646 -0.21290193 0.09609768 -0.014990847 0.27914175 0.28108746 0.1581308 0.0102564925 0.15653196 -0.15790756 0.14894201 -0.046184607 -0.1162687 -0.0665589 0.063580245 -0.33422726 -0.42722636 -0.038174257 0.020907568 0.066694215 0.19337797 0.43636322 0.11183412 -0.077843845 -0.0019424851 0.082758486 -0.2294576 -0.15562665 -0.024412958 -0.089022905 -0.087618575 0.016346008 0.40520602 -0.024574054 0.104112856 0.14534718 0.26432717 0.19915052 0.26012152 0.09332148 -0.21810867 -0.10188562 0.29960656 0.20324074 -0.23626797 -0.029146407 0.029908178
11120 0.79846984 -0.38548696 0.7097406 -0.6045848 0.67029107 -0.59793544 0.37874576 0.18071121 -0.25703517 -0.49899852 0.71959645 -0.5705925 0.15827464 -0.061393276 -0.19284108 0.1444823 0.7583221 -0.39222282 -0.32750475 0.719104 0.33392787 0.26784372 0.17949885 -0.42000026 -0.26081473 0.6354287 -0.48197824 -0.8212561 0.08860097 -0.028933808 -0.5593678 0.32793924 -0.39692917 -0.024835983 -0.7335629 -0.3463774 -0.27049872 -0.50720364 0.13042329 0.17232126 -0.11207232 -0.30965078 0.16577381 -0.39492342 0.07265815 -0.16450295 -0.6136741 -0.20276101 0.48005894 0.06865778 -0.92787665 0.5108259 0.32878584 0.7343034 0.15354744 -0.022231217 0.05150049 0.14856517 -0.26643762 0.30368298 0.4530414 -0.25736344 -0.6332025 0.079094715
10971 0.73653436 -0.3691374 0.65648615 -0.5430634 0.60698515 -0.5233516 0.33661264 0.16556522 -0.22851413 -0.45708835 0.63705444 -0.49902093 0.13960542 -0.037244786 -0.19194093 0.14139551 0.6694724 -0.36093593 -0.3323024 0.6513692 0.30281138 0.262057 0.16493489 -0.40321827 -0.25013295 0.57800364 -0.45697618 -0.7766677 0.05270055 -0.03473483 -0.52695984 0.2826287 -0.37504882 -0.017913362 -0.6521001 -0.2892428 -0.252127 -0.47175062 0.14249727 0.17145333 -0.10190363 -0.2847618 0.1620334 -0.38966122 0.05278676 -0.15937088 -0.5601306 -0.18690023 0.41468623 0.054834805 -0.8448912 0.45389098 0.29108533 0.6669485 0.14341724 -0.030073086 0.034738492 0.11340873 -0.23694089 0.28330967 0.40720302 -0.24561842 -0.6038571 0.0820909
10935 0.03185703 0.03911107 0.17948896 0.1828802 -0.304269 -0.2487975 0.09114261 0.16023871 -0.12412556 0.14333807 0.23389922 -0.31693172 -0.11635118 -0.025230583 0.12117289 0.0068755317 0.014197801 0.0063472763 -0.19162396 0.08556835 0.018394826 0.31832945 0.26065648 0.20841329 -0.0017883437 0.14618541 -0.16917668 0.23175359 -0.08003397 -0.09972705 -0.04386373 0.03666417 -0.3284551 -0.48300114 -0.046909135 -0.0011283512 0.071586065 0.23751897 0.4348501 0.122597545 -0.08243447 0.022621294 0.049861576 -0.24411625 -0.1642208 -0.031564787 -0.022242976 -0.10834533 -0.011869411 0.45905867 0.045431554 0.1212018 0.18214558 0.25316313 0.2007139 0.28006065 0.12188093 -0.23981066 -0.117721304 0.36407468 0.21507424 -0.2557534 0.007547022 0.012393275
11019 0.052676093 -0.0020547416 0.2094892 0.15931378 -0.2575628 -0.26625672 0.095166445 0.2261827 -0.08844135 0.09672227 0.21928923 -0.22195128 -0.1104746 0.021144267 0.112507924 0.0011266188 0.03827397 -0.032555938 -0.20334695 0.071932584 -0.0044758436 0.27617088 0.31234518 0.17876692 0.048293676 0.20176543 -0.13788162 0.15873195 -0.029280419 -0.1420582 -0.09542374 0.08627272 -0.33733582 -0.43653688 -0.020538004 0.024386434 0.11126582 0.21307883 0.4360936 0.11205575 -0.10141072 -0.0008749439 0.075882256 -0.21729922 -0.16393311 -0.017357185 -0.08953151 -0.09546997 -0.0075513492 0.39631 -0.030601157 0.07708009 0.17944857 0.28408414 0.23530802 0.29781282 0.11092743 -0.21253216 -0.13361545 0.3010857 0.2072098 -0.22836462 -0.030092655 0.059604954
11200 0.8144182 -0.39995927 0.7239516 -0.6113073 0.65966034 -0.6071102 0.361918 0.17229572 -0.24917807 -0.495411 0.7106997 -0.5489203 0.14641891 -0.0338995 -0.2083665 0.15204956 0.7639644 -0.397077 -0.330487 0.69930995 0.34092972 0.27554 0.18360132 -0.4488765 -0.27548757 0.64292663 -0.5039568 -0.8534977 0.09372441 -0.04334481 -0.57937145 0.34521452 -0.41700977 -0.0042286683 -0.71260667 -0.3215674 -0.2696094 -0.54030675 0.12744653 0.18531434 -0.13421023 -0.3250681 0.17373651 -0.41054004 0.06000834 -0.18700185 -0.63384485 -0.21468665 0.45863447 0.078310765 -0.92070436 0.48973897 0.30886382 0.7307439 0.15378514 -0.03202017 0.038222108 0.13582975 -0.2807805 0.3104294 0.45695278 -0.25229132 -0.6481014 0.086819485
10862 0.7482629 -0.37176892 0.67054015 -0.5340747 0.5991255 -0.55680823 0.34139538 0.19169125 -0.24862482 -0.46498665 0.66241086 -0.52031976 0.11805528 -0.041366465 -0.19351126 0.13461283 0.6828829 -0.36912918 -0.3168352 0.6571005 0.3081079 0.24870853 0.17672001 -0.39328036 -0.25672132 0.58727515 -0.45842955 -0.7694956 0.06489528 -0.04769158 -0.516194 0.30975518 -0.3794165 -0.059917893 -0.654646 -0.2959388 -0.21761623 -0.46206 0.15700549 0.17725539 -0.11434207 -0.30533192 0.15938781 -0.3683999 0.06117817 -0.15326494 -0.58551615 -0.1958032 0.43358102 0.08160129 -0.8648907 0.4658656 0.2924211 0.69632703 0.17623991 -0.008844616 0.05293182 0.114383094 -0.25935066 0.29540733 0.44048053 -0.23314707 -0.60081226 0.1042903
10859 0.75791574 -0.3712345 0.6609767 -0.54957575 0.6095813 -0.5517117 0.35310957 0.19058049 -0.23288137 -0.46329695 0.6483706 -0.51649714 0.1297066 -0.034241486 -0.16860889 0.13922393 0.70359075 -0.37604004 -0.32557994 0.65577716 0.30909434 0.2539532 0.15724434 -0.39635947 -0.26465756 0.604551 -0.4547603 -0.77783644 0.07685711 -0.028957445 -0.53030485 0.29593346 -0.37985036 -0.018928666 -0.6743554 -0.30291784 -0.24891421 -0.4784053 0.14377078 0.16460784 -0.12137295 -0.2917006 0.1413204 -0.36159426 0.0642264 -0.17666051 -0.576754 -0.18526353 0.4111775 0.061432205 -0.86527383 0.45304486 0.31235406 0.69342864 0.1623548 -0.026396943 0.05570784 0.12132543 -0.2507537 0.28348988 0.42021677 -0.24353234 -0.60492074 0.09824683
11202 0.7942648 -0.40256786 0.68112046 -0.5798721 0.6300196 -0.59203386 0.37035576 0.17752136 -0.2600322 -0.4894303 0.68751884 -0.5400313 0.124449335 -0.04925332 -0.20564999 0.1358832 0.7229386 -0.40136626 -0.31734484 0.70761055 0.32252383 0.2495417 0.17093898 -0.42199904 -0.25436118 0.6290272 -0.49661422 -0.8186944 0.064858496 -0.029798223 -0.56039006 0.32028198 -0.38870627 -0.012685848 -0.6917636 -0.33836058 -0.24651371 -0.5287599 0.1243023 0.17066787 -0.12787789 -0.31091166 0.14704897 -0.38978788 0.07917358 -0.16614819 -0.603567 -0.18846095 0.45504555 0.063496895 -0.91515326 0.49585488 0.30145553 0.71668845 0.17492682 -0.02051966 0.049147394 0.12030943 -0.25797254 0.31850845 0.42775103 -0.25951886 -0.6099322 0.10407955
10899 -0.05118426 0.08185877 0.06478137 0.12318289 -0.3772614 -0.18467203 0.057757013 0.0044982065 -0.1663891 0.28713578 0.33105376 -0.4749914 -0.080472864 -0.12520558 0.072378755 0.025528371 0.12170485 0.036870748 -0.13392761 0.12811743 0.058410417 0.30817792 0.07461682 0.14122048 -0.13257994 0.013189601 -0.2967594 0.28485197 -0.18300927 0.029294783 0.05582015 -0.024726376 -0.28545824 -0.4605031 -0.20322092 -0.11205627 -0.022162931 0.10566843 0.35029536 0.113885835 -0.011650539 0.0701639 0.0271941 -0.31113288 -0.18356924 -0.0926046 0.09219311 -0.14596672 0.06955923 0.4712086 0.18607095 0.1699959 0.17022634 0.16902958 0.10136028 0.19938032 0.091563255 -0.15802146 -0.089931086 0.5801388 0.18131565 -0.3082514 -0.00205215 -0.030294122
10880 0.7886651 -0.38113418 0.69067556 -0.58797324 0.64795816 -0.5877073 0.3531226 0.16804901 -0.24155347 -0.5042206 0.69372445 -0.5401416 0.16073799 -0.059247125 -0.20638663 0.14380823 0.7145901 -0.38176677 -0.33727154 0.6824578 0.30887377 0.24495162 0.19156414 -0.41576752 -0.24780825 0.6054867 -0.4671386 -0.8348785 0.09110577 -0.029910749 -0.5639171 0.3341978 -0.39848274 -0.034636647 -0.68434995 -0.30745035 -0.26455235 -0.5165164 0.154588 0.18121743 -0.11993553 -0.30281684 0.1570408 -0.38320038 0.07079602 -0.14732875 -0.6190567 -0.18677661 0.4583283 0.04743722 -0.9229683 0.49817827 0.3214521 0.7071042 0.16770735 -0.019292535 0.036635954 0.12634765 -0.2697975 0.30286494 0.4437044 -0.2577516 -0.62289786 0.09227585
11049 0.0069512054 0.046709895 0.12465697 0.06579038 -0.25719228 -0.15108521 0.057017803 0.007368115 -0.13315728 0.17046115 0.30157715 -0.3903788 -0.06629016 -0.1166606 0.040125206 0.02317658 0.12817128 0.0044659567 -0.15046112 0.13062912 0.06529408 0.26022202 0.107188754 0.08403039 -0.112398624 0.032720085 -0.26424327 0.14486761 -0.1609178 0.006223951 0.039867345 -0.008248428 -0.2581076 -0.38102403 -0.22270371 -0.114839844 -0.014891165 0.060991526 0.3176116 0.07681996 0.0033497205 0.039966956 0.054818846 -0.30105513 -0.16056484 -0.07727963 0.040901147 -0.13053742 0.079482555 0.37536845 0.08490331 0.15999655 0.1562127 0.18987489 0.0799383 0.16021399 0.075438805 -0.11343573 -0.08577195 0.48447406 0.18499744 -0.26710904 -0.071926214 -0.019045819
11259 0.00048329827 0.041252416 0.12010461 0.09718281 -0.2866334 -0.20347707 0.07688407 0.06864739 -0.11259821 0.19467682 0.27191934 -0.3548716 -0.07955049 -0.09362873 0.07413451 0.03762066 0.10989494 0.012237135 -0.1641874 0.109716825 0.029434295 0.28584763 0.13882276 0.13828899 -0.06081128 0.06282936 -0.23085906 0.19235967 -0.103087254 -0.026843287 0.009059341 0.0078109964 -0.2725875 -0.3975162 -0.1526467 -0.060460847 0.012169656 0.12309329 0.361294 0.105643444 -0.038841635 0.025587916 0.061628804 -0.2486828 -0.15313372 -0.07258739 0.012308285 -0.13719566 0.039872006 0.3940641 0.07940094 0.118598886 0.16273674 0.21577471 0.14646374 0.19690372 0.07160922 -0.17482743 -0.093611635 0.41846582 0.17037669 -0.24900882 -0.038791683 -0.02577866
10789 -0.049226504 0.06750897 0.07953292 0.12727718 -0.37100086 -0.17767395 0.04106485 0.038888432 -0.12711573 0.24735725 0.3450734 -0.4290345 -0.1050235 -0.11957058 0.07111366 0.02772985 0.08837087 0.029363658 -0.15479259 0.0841915 0.03405326 0.3061148 0.11646537 0.14080155 -0.08994683 0.012285655 -0.27003765 0.27920887 -0.17532736 0.029796 0.053209186 -0.038131885 -0.27750304 -0.4826506 -0.17744355 -0.09667652 -0.006343875 0.123145975 0.3922549 0.10140164 -0.014575723 0.03725515 0.045246974 -0.33069235 -0.18290009 -0.092590235 0.08056235 -0.15251547 0.05838563 0.47552094 0.159699 0.14775814 0.1589002 0.2029607 0.13881515 0.19189952 0.09869915 -0.17524278 -0.09764478 0.5651141 0.18155983 -0.29509428 -0.01790311 -0.035825614
11254 0.059757363 0.015234543 0.18388467 0.1081771 -0.2650012 -0.24249992 0.100002475 0.14612569 -0.09970463 0.12298457 0.22881511 -0.29071745 -0.1054715 -0.0166874 0.087284215 0.01193066 0.08939923 -0.022305507 -0.15945257 0.10462601 0.047479734 0.27465364 0.19691636 0.16086003 -0.019182289 0.16395465 -0.1951996 0.1666957 -0.022081314 -0.08107298 -0.049449284 0.075546406 -0.2748105 -0.38643214 -0.045241278 -0.03464099 0.08075387 0.1427169 0.34750128 0.12422058 -0.07766504 -0.009513059 0.03886309 -0.19823517 -0.13928531 -0.07663018 -0.043949123 -0.08533002 0.0031709704 0.3888778 0.012812833 0.092766225 0.15179461 0.22406512 0.2026595 0.26381943 0.07935957 -0.18345363 -0.121385604 0.33585578 0.1918319 -0.2245324 -0.007057148 0.03087322
11269 0.018337643 0.045120224 0.1825241 0.112479754 -0.2356816 -0.22343902 0.06250365 0.13545763 -0.10870314 0.0970993 0.28709334 -0.32175738 -0.055977046 -0.057879698 0.070146516 0.011251132 0.066496775 -0.018788852 -0.20715931 0.11121262 -0.00030450034 0.26103 0.22094218 0.13021931 -0.028361732 0.10349137 -0.17170633 0.11917981 -0.1376146 -0.076822236 -0.037021898 0.0037910652 -0.32103276 -0.4068936 -0.13331129 0.002443392 0.023668878 0.16091585 0.39664978 0.07950157 -0.039470423 0.023660056 0.10872828 -0.27850625 -0.17896429 -0.023083232 -0.04017194 -0.11192611 0.042800106 0.37987903 0.011793018 0.16447577 0.16784577 0.23796421 0.16123065 0.17194404 0.1118057 -0.17240798 -0.08945663 0.37423915 0.22147651 -0.23110269 -0.08832993 -0.031847227
10188 0.93986166 -0.34516835 0.3977454 -0.602691 -0.1114829 -0.9476985 0.62149626 0.23915151 -0.5581508 0.4808419 0.32123724 -0.57305914 -0.6633223 0.12206265 0.1467284 0.31769377 1.0614384 -0.14034516 0.2437814 0.46466893 0.5240621 0.5473986 -0.22458619 0.3035943 -0.4144783 0.7040426 -0.7984484 0.39490813 0.9610018 0.030315507 -0.4296068 0.8755948 -0.438735 -0.39707235 -0.00028349645 -0.60945743 0.23915933 -0.37290967 -0.031107657 0.69625694 -0.37717968 -0.41520664 -0.54365456 0.07484142 0.17898549 -0.74771285 -0.01598972 -0.33092335 -0.0048918845 0.359694 -0.09845275 -0.4390694 0.48984966 0.49669334 0.7527538 0.785479 0.04594051 -0.10882938 -0.62333184 0.24634512 0.12005087 -0.3199111 0.2883844 0.5348324
11304 0.9019598 -0.32256636 0.4015516 -0.59554964 -0.10315779 -0.9030234 0.5856876 0.23798351 -0.5438537 0.49674237 0.29151624 -0.5218395 -0.6571026 0.14521223 0.17859347 0.2866703 1.0194585 -0.12251805 0.2575588 0.46091992 0.48803335 0.50622934 -0.23880762 0.33702397 -0.39191866 0.6756098 -0.7566373 0.40900397 0.9424208 0.017178165 -0.3991035 0.8502778 -0.4022136 -0.35527855 0.011357897 -0.5703648 0.25839394 -0.35929626 -0.03140776 0.69112444 -0.39528304 -0.3962572 -0.5321142 0.09305851 0.19855534 -0.72507393 0.0016698497 -0.31587481 -0.04346544 0.33632684 -0.099185556 -0.43966058 0.4597683 0.44905406 0.74308896 0.7887835 0.033976883 -0.10257721 -0.59088093 0.23217611 0.089644246 -0.29235554 0.28958437 0.53759164
10228 0.09823281 0.012715703 0.1803455 0.08491977 -0.25481942 -0.2806572 0.11832144 0.18784152 -0.12594852 0.14229906 0.21160924 -0.25239974 -0.12771624 -0.007272626 0.13094166 0.01502307 0.08041811 -0.023822147 -0.14099988 0.0847682 0.016317299 0.2733164 0.19750404 0.18199079 -0.00090738985 0.1799692 -0.17283465 0.19431344 0.03876096 -0.0902012 -0.05273646 0.11738017 -0.31562683 -0.40900707 -0.0017223072 -0.013334275 0.0962049 0.17279425 0.3445795 0.1334921 -0.102146365 -0.0019021458 0.013619892 -0.19460346 -0.12936474 -0.069668755 -0.037109476 -0.10836816 -0.0115187215 0.36962846 0.013749075 0.040302116 0.17416002 0.24302633 0.23053087 0.29196578 0.10225434 -0.20687829 -0.15163362 0.29551923 0.15199867 -0.20961052 0.0001215855 0.07173578
11111 0.722384 -0.36913866 0.64014095 -0.5398466 0.5968449 -0.52694285 0.34132206 0.1753241 -0.22835623 -0.43572083 0.63298184 -0.5167129 0.12661333 -0.03178838 -0.18078901 0.118287995 0.69294137 -0.33727485 -0.31679115 0.64227766 0.2953249 0.2629157 0.17456171 -0.3816536 -0.24091549 0.5860077 -0.44440177 -0.7535306 0.082751945 -0.030734962 -0.5105218 0.30898687 -0.37304583 -0.017149298 -0.6561838 -0.30305436 -0.23855394 -0.4797613 0.11754987 0.17901796 -0.12121186 -0.2799416 0.14686635 -0.37490544 0.054408222 -0.17494017 -0.5690496 -0.18905592 0.43187693 0.061401013 -0.8367365 0.45884618 0.31287676 0.6846557 0.14019012 -0.0037574854 0.033234995 0.12668285 -0.23930891 0.28690442 0.4246506 -0.25102556 -0.5681941 0.098576576
10609 -0.0892793 0.12164219 -0.013454251 0.011715814 -0.43536377 -0.12896816 0.05114968 -0.19644582 -0.22040628 0.42566493 0.45352647 -0.6739781 -0.111047015 -0.24978264 -0.015730599 0.048539683 0.26672715 0.09570295 -0.07876684 0.19131036 0.13346364 0.32363385 -0.12931785 0.07102389 -0.27456418 -0.1160552 -0.44937432 0.33370802 -0.24549659 0.19781166 0.1744718 -0.042642027 -0.24842787 -0.47388902 -0.383458 -0.29865384 -0.11017559 -0.061270323 0.25253808 0.1260579 0.044471778 0.08044 -0.02893005 -0.38500094 -0.198404 -0.1767627 0.22642443 -0.23389904 0.14855036 0.49745154 0.30402198 0.2068743 0.16818266 0.10012367 0.031123064 0.11184353 0.04930377 -0.0923171 -0.06723632 0.7953749 0.16849324 -0.3871044 -0.025530625 -0.086993925
10629 -0.08516327 0.0876635 0.001016 0.0049919635 -0.38208377 -0.10583559 0.052743144 -0.17093502 -0.224172 0.39805397 0.42076838 -0.62996435 -0.08871121 -0.20860969 -0.019707657 0.039176747 0.23895365 0.09781981 -0.08321185 0.17131366 0.14495243 0.29447627 -0.14287318 0.06363213 -0.26730424 -0.12731798 -0.44793007 0.2922399 -0.23076324 0.18246679 0.1362608 -0.023125295 -0.20783506 -0.43339986 -0.35076705 -0.28984222 -0.1097156 -0.05193436 0.23338844 0.11296719 0.03540428 0.06433583 -0.031094894 -0.36832416 -0.20580582 -0.16340843 0.18675014 -0.22342452 0.14320159 0.44447947 0.27396575 0.2024397 0.14700449 0.121458255 0.003379902 0.10188472 0.035190597 -0.07867093 -0.0941135 0.7550748 0.1738893 -0.36313516 -0.017536223 -0.061716534
10809 -0.08832114 0.11207168 -0.01900701 -0.018552914 -0.39517495 -0.12324148 0.043790344 -0.20904963 -0.24368863 0.4320228 0.4848467 -0.7129156 -0.11939917 -0.28245017 -0.027847424 0.058221117 0.30932653 0.09329391 -0.05730681 0.20626147 0.16713026 0.34142408 -0.19073091 0.041138653 -0.32669505 -0.1471153 -0.5101555 0.31706634 -0.24949504 0.24377114 0.15116504 -0.043792937 -0.23750612 -0.45435643 -0.4241321 -0.33015522 -0.14979124 -0.0856154 0.21990782 0.11060132 0.03016359 0.07717839 -0.013421637 -0.389919 -0.18492448 -0.21214224 0.21906884 -0.24990667 0.17185573 0.46833456 0.31779838 0.2071952 0.1878154 0.13084427 0.008304272 0.10858506 0.06154721 -0.06507071 -0.07620247 0.8264753 0.16988385 -0.37925652 -0.031949397 -0.09028874
10972 -0.077479295 0.1048427 0.015515205 -0.031778008 -0.41177827 -0.12516919 0.06105361 -0.19866352 -0.2184376 0.40465233 0.4703248 -0.676926 -0.090275735 -0.257904 -0.029411836 0.058555394 0.28175116 0.10878341 -0.096847154 0.20351942 0.14865297 0.3219113 -0.14516708 0.049622174 -0.29867908 -0.13990858 -0.48048204 0.3031855 -0.26493257 0.22270992 0.15680926 -0.04960367 -0.24456151 -0.445853 -0.41982418 -0.30448514 -0.11715469 -0.059270076 0.25414214 0.12789486 0.034442943 0.057313774 0.0077196285 -0.41115218 -0.21139236 -0.194635 0.21262994 -0.25127143 0.16045113 0.47129083 0.2816005 0.1991034 0.15432318 0.13391449 0.0011068657 0.11584247 0.048047155 -0.09536066 -0.09671685 0.8126716 0.178452 -0.3705175 -0.0632177 -0.103770934
11339 -0.097019635 0.102421276 -0.004341314 -0.011843353 -0.4210073 -0.12504289 0.061742432 -0.18137859 -0.22862291 0.40193367 0.4410422 -0.6660256 -0.08605574 -0.25465113 -0.00475827 0.061460275 0.26575047 0.110882886 -0.07432561 0.18482065 0.12273479 0.33504254 -0.13406529 0.0530715 -0.25596148 -0.1316957 -0.4652922 0.29941806 -0.24479394 0.19776402 0.15521783 -0.036018267 -0.25118887 -0.4561985 -0.3887335 -0.28569844 -0.12564766 -0.042611677 0.27155024 0.12680924 0.029834727 0.06964543 0.0049676835 -0.39682823 -0.21161129 -0.17219427 0.19146241 -0.21973957 0.15119652 0.49418545 0.295571 0.19596486 0.1652346 0.11580501 0.01490816 0.1047425 0.0583926 -0.09013077 -0.0960086 0.7927356 0.18123767 -0.37536284 -0.04137536 -0.0870847
10138 -0.08927246 0.12095106 -0.0036571485 -0.022012763 -0.41258237 -0.120737836 0.0507173 -0.18017016 -0.24284047 0.4530221 0.43953314 -0.692553 -0.12531205 -0.25462455 -0.014338359 0.04725272 0.29988134 0.116635606 -0.07101484 0.19061095 0.14713041 0.33463454 -0.1698035 0.059243403 -0.30273202 -0.1423275 -0.48864496 0.3338558 -0.2545723 0.22262394 0.161637 -0.03842391 -0.24894768 -0.4659178 -0.39934024 -0.3286378 -0.12345988 -0.08283984 0.23058802 0.11896479 0.052326895 0.06804156 -0.038055144 -0.3824968 -0.21961582 -0.20375085 0.22520803 -0.2508057 0.127435 0.46772453 0.32528782 0.21066935 0.17586513 0.11351282 0.026758045 0.11436591 0.06248155 -0.07129452 -0.08417923 0.8216406 0.15766759 -0.3844455 -0.008347456 -0.07835594
10821 -0.09296177 0.10382792 -0.008957538 -0.022436732 -0.42973322 -0.1121526 0.059954833 -0.1921305 -0.24316236 0.45070705 0.4474323 -0.7060863 -0.11999807 -0.26384106 -0.025990918 0.05300257 0.29580745 0.105856024 -0.0698132 0.18575633 0.15324149 0.33416882 -0.14990476 0.071404666 -0.30116412 -0.13303754 -0.504261 0.31576473 -0.25524765 0.21344669 0.15043384 -0.039922565 -0.24153057 -0.46301568 -0.41803107 -0.31731936 -0.114527225 -0.06745779 0.23737179 0.15095297 0.05910444 0.06666004 -0.02537994 -0.41415936 -0.21665859 -0.19895303 0.22212331 -0.24327253 0.1373479 0.4935163 0.2930582 0.21577862 0.17826389 0.10269996 0.02159824 0.13164699 0.040934857 -0.09339084 -0.07806224 0.8248659 0.19237211 -0.4093093 -0.033639986 -0.06769362
11289 -0.082405396 0.09967846 -0.015110328 -0.03478134 -0.396627 -0.09860949 0.050542787 -0.20201474 -0.21453632 0.4041752 0.43907002 -0.6586591 -0.09413037 -0.25039682 -0.026077908 0.045619585 0.30110973 0.11055944 -0.06871202 0.17804499 0.14997013 0.3139261 -0.17107242 0.034619756 -0.2933861 -0.12978537 -0.48694685 0.28512663 -0.2314901 0.20336804 0.16623072 -0.034790903 -0.23807274 -0.4403818 -0.39495775 -0.29877457 -0.13932693 -0.08968847 0.21607369 0.13323425 0.035166156 0.069167785 -0.02028693 -0.39466155 -0.20012912 -0.18683577 0.20699245 -0.24268991 0.13446875 0.4412277 0.2873766 0.19732685 0.16142967 0.11523375 0.01653259 0.10471824 0.04274969 -0.06914858 -0.090143144 0.76795274 0.18211798 -0.37308148 -0.055075552 -0.07655678
10125 -0.059503306 0.11036176 0.0071290545 -0.0090569975 -0.4397173 -0.16007923 0.05454129 -0.18741685 -0.2532704 0.46490225 0.46250236 -0.68603987 -0.13377908 -0.22659867 0.007783933 0.047055017 0.29815674 0.10572329 -0.07823861 0.18594158 0.16937874 0.36128202 -0.16281468 0.07383765 -0.28682524 -0.11469664 -0.4989522 0.3656487 -0.23250557 0.20786154 0.16917941 -0.019584393 -0.25159097 -0.48567632 -0.3992568 -0.30511537 -0.10683137 -0.06531595 0.26752964 0.1283193 0.035863157 0.06377591 -0.04693352 -0.40398836 -0.19682011 -0.21120147 0.22497106 -0.2457181 0.14876871 0.50832725 0.32918942 0.20504369 0.17367437 0.109553196 0.034052074 0.146197 0.0647514 -0.08522381 -0.10361226 0.8128637 0.16682677 -0.4017084 -0.0008331791 -0.08490527
112 0.09249048 -0.015063838 0.19123083 0.046303082 -0.15802054 -0.2388195 0.10587356 0.12038421 -0.095054165 0.0731518 0.24593443 -0.2658504 -0.07411341 -0.028928429 0.07192573 0.012558216 0.107810624 -0.039117802 -0.13777845 0.10370267 0.0352819 0.23040746 0.1642673 0.11505079 -0.033055503 0.16418283 -0.17225859 0.08971951 -0.027075306 -0.05272053 -0.08874782 0.0794586 -0.24958849 -0.3198105 -0.08743671 -0.026639046 0.04591278 0.09097227 0.31178796 0.1034441 -0.05254819 -0.0045425333 0.03678936 -0.20083512 -0.121785104 -0.056120727 -0.085458234 -0.0895002 0.040316865 0.3053754 -0.03178802 0.093801595 0.14690791 0.22895612 0.16319244 0.18324712 0.06710641 -0.12786861 -0.12147431 0.2940836 0.16709311 -0.1969304 -0.053570207 0.013222142
11029 0.03016546 0.008495395 0.12579796 0.05248241 -0.22325878 -0.19862773 0.072080776 0.056617107 -0.123917684 0.1302846 0.26084012 -0.34110126 -0.07141463 -0.080841415 0.0366426 0.011247178 0.11839243 -0.019034205 -0.15008909 0.12871602 0.058288533 0.23885633 0.14287712 0.08686227 -0.06785319 0.102786295 -0.2235771 0.14830753 -0.08721396 -0.011728038 -0.015055362 0.020376157 -0.2723808 -0.3659712 -0.14780954 -0.07912549 0.009184994 0.07478646 0.31204256 0.09742986 -0.02427007 -0.008348902 0.044458024 -0.2348914 -0.1197605 -0.07221962 -0.010880454 -0.1322137 0.058455683 0.32807183 0.022525072 0.12716173 0.14730904 0.2220795 0.11668787 0.17599091 0.07906382 -0.14621761 -0.09989126 0.38958195 0.1642833 -0.2282919 -0.045026314 -8.930432e-05
